digraph Tree {
node [shape=box] ;
0 [label="X[499] <= 0.001\ngini = 0.289\nsamples = 40\nvalue = [33, 7]"] ;
1 [label="X[1790] <= 0.0\ngini = 0.059\nsamples = 33\nvalue = [32, 1]"] ;
0 -> 1 [labeldistance=2.5, labelangle=45, headlabel="True"] ;
2 [label="gini = 0.0\nsamples = 29\nvalue = [29, 0]"] ;
1 -> 2 ;
3 [label="gini = 0.375\nsamples = 4\nvalue = [3, 1]"] ;
1 -> 3 ;
4 [label="gini = 0.245\nsamples = 7\nvalue = [1, 6]"] ;
0 -> 4 [labeldistance=2.5, labelangle=-45, headlabel="False"] ;
}